digraph Tree {
0 [label="X[2] <= 0.5000\nmse = 248567.1875\nsamples = 96", shape="box"] ;
1 [label="X[1] <= 0.5000\nmse = 16224.9134948\nsamples = 34", shape="box"] ;
0 -> 1 ;
2 [label="X[7] <= 0.5000\nmse = 11259.0\nsamples = 20", shape="box"] ;
1 -> 2 ;
3 [label="X[5] <= 0.5000\nmse = 4899.40828402\nsamples = 13", shape="box"] ;
2 -> 3 ;
4 [label="X[6] <= 0.5000\nmse = 4176.0\nsamples = 5", shape="box"] ;
3 -> 4 ;
5 [label="X[8] <= 0.5000\nmse = 600.0\nsamples = 3", shape="box"] ;
4 -> 5 ;
6 [label="mse = 0.0000\nsamples = 1\nvalue = [ 1200.]", shape="box"] ;
5 -> 6 ;
7 [label="X[4] <= 0.5000\nmse = 225.0\nsamples = 2", shape="box"] ;
5 -> 7 ;
8 [label="mse = 0.0000\nsamples = 1\nvalue = [ 1230.]", shape="box"] ;
7 -> 8 ;
9 [label="mse = 0.0000\nsamples = 1\nvalue = [ 1260.]", shape="box"] ;
7 -> 9 ;
10 [label="X[3] <= 0.5000\nmse = 900.0\nsamples = 2", shape="box"] ;
4 -> 10 ;
11 [label="mse = 0.0000\nsamples = 1\nvalue = [ 1080.]", shape="box"] ;
10 -> 11 ;
12 [label="mse = 0.0000\nsamples = 1\nvalue = [ 1140.]", shape="box"] ;
10 -> 12 ;
13 [label="X[3] <= 0.5000\nmse = 2685.9375\nsamples = 8", shape="box"] ;
3 -> 13 ;
14 [label="X[4] <= 0.5000\nmse = 800.0\nsamples = 3", shape="box"] ;
13 -> 14 ;
15 [label="mse = 0.0000\nsamples = 2\nvalue = [ 1080.]", shape="box"] ;
14 -> 15 ;
16 [label="mse = 0.0000\nsamples = 1\nvalue = [ 1020.]", shape="box"] ;
14 -> 16 ;
17 [label="X[8] <= 0.5000\nmse = 2376.0\nsamples = 5", shape="box"] ;
13 -> 17 ;
18 [label="mse = 0.0000\nsamples = 1\nvalue = [ 1200.]", shape="box"] ;
17 -> 18 ;
19 [label="X[4] <= 0.5000\nmse = 1068.75\nsamples = 4", shape="box"] ;
17 -> 19 ;
20 [label="X[6] <= 0.5000\nmse = 900.0\nsamples = 2", shape="box"] ;
19 -> 20 ;
21 [label="mse = 0.0000\nsamples = 1\nvalue = [ 1110.]", shape="box"] ;
20 -> 21 ;
22 [label="mse = 0.0000\nsamples = 1\nvalue = [ 1050.]", shape="box"] ;
20 -> 22 ;
23 [label="X[6] <= 0.5000\nmse = 225.0\nsamples = 2", shape="box"] ;
19 -> 23 ;
24 [label="mse = 0.0000\nsamples = 1\nvalue = [ 1140.]", shape="box"] ;
23 -> 24 ;
25 [label="mse = 0.0000\nsamples = 1\nvalue = [ 1110.]", shape="box"] ;
23 -> 25 ;
26 [label="X[5] <= 0.5000\nmse = 10726.5306122\nsamples = 7", shape="box"] ;
2 -> 26 ;
27 [label="X[6] <= 0.5000\nmse = 3200.0\nsamples = 3", shape="box"] ;
26 -> 27 ;
28 [label="mse = 0.0000\nsamples = 2\nvalue = [ 1410.]", shape="box"] ;
27 -> 28 ;
29 [label="mse = 0.0000\nsamples = 1\nvalue = [ 1290.]", shape="box"] ;
27 -> 29 ;
30 [label="X[6] <= 0.5000\nmse = 2868.75\nsamples = 4", shape="box"] ;
26 -> 30 ;
31 [label="mse = 0.0000\nsamples = 1\nvalue = [ 1260.]", shape="box"] ;
30 -> 31 ;
32 [label="X[4] <= 0.5000\nmse = 1800.0\nsamples = 3", shape="box"] ;
30 -> 32 ;
33 [label="mse = 0.0000\nsamples = 2\nvalue = [ 1140.]", shape="box"] ;
32 -> 33 ;
34 [label="mse = 0.0000\nsamples = 1\nvalue = [ 1230.]", shape="box"] ;
32 -> 34 ;
35 [label="X[5] <= 0.5000\nmse = 4169.3877551\nsamples = 14", shape="box"] ;
1 -> 35 ;
36 [label="X[7] <= 0.5000\nmse = 3585.9375\nsamples = 8", shape="box"] ;
35 -> 36 ;
37 [label="X[3] <= 0.5000\nmse = 1944.0\nsamples = 5", shape="box"] ;
36 -> 37 ;
38 [label="X[8] <= 0.5000\nmse = 200.0\nsamples = 3", shape="box"] ;
37 -> 38 ;
39 [label="X[4] <= 0.5000\nmse = 225.0\nsamples = 2", shape="box"] ;
38 -> 39 ;
40 [label="mse = 0.0000\nsamples = 1\nvalue = [ 990.]", shape="box"] ;
39 -> 40 ;
41 [label="mse = 0.0000\nsamples = 1\nvalue = [ 960.]", shape="box"] ;
39 -> 41 ;
42 [label="mse = 0.0000\nsamples = 1\nvalue = [ 960.]", shape="box"] ;
38 -> 42 ;
43 [label="X[6] <= 0.5000\nmse = 2025.0\nsamples = 2", shape="box"] ;
37 -> 43 ;
44 [label="mse = 0.0000\nsamples = 1\nvalue = [ 1080.]", shape="box"] ;
43 -> 44 ;
45 [label="mse = 0.0000\nsamples = 1\nvalue = [ 990.]", shape="box"] ;
43 -> 45 ;
46 [label="X[6] <= 0.5000\nmse = 800.0\nsamples = 3", shape="box"] ;
36 -> 46 ;
47 [label="mse = 0.0000\nsamples = 2\nvalue = [ 1110.]", shape="box"] ;
46 -> 47 ;
48 [label="mse = 0.0000\nsamples = 1\nvalue = [ 1050.]", shape="box"] ;
46 -> 48 ;
49 [label="X[7] <= 0.5000\nmse = 1625.0\nsamples = 6", shape="box"] ;
35 -> 49 ;
50 [label="X[8] <= 0.5000\nmse = 200.0\nsamples = 3", shape="box"] ;
49 -> 50 ;
51 [label="X[3] <= 0.5000\nmse = 225.0\nsamples = 2", shape="box"] ;
50 -> 51 ;
52 [label="mse = 0.0000\nsamples = 1\nvalue = [ 900.]", shape="box"] ;
51 -> 52 ;
53 [label="mse = 0.0000\nsamples = 1\nvalue = [ 930.]", shape="box"] ;
51 -> 53 ;
54 [label="mse = 0.0000\nsamples = 1\nvalue = [ 930.]", shape="box"] ;
50 -> 54 ;
55 [label="X[4] <= 0.5000\nmse = 600.0\nsamples = 3", shape="box"] ;
49 -> 55 ;
56 [label="mse = 0.0000\nsamples = 1\nvalue = [ 1020.]", shape="box"] ;
55 -> 56 ;
57 [label="X[3] <= 0.5000\nmse = 225.0\nsamples = 2", shape="box"] ;
55 -> 57 ;
58 [label="mse = 0.0000\nsamples = 1\nvalue = [ 960.]", shape="box"] ;
57 -> 58 ;
59 [label="mse = 0.0000\nsamples = 1\nvalue = [ 990.]", shape="box"] ;
57 -> 59 ;
60 [label="X[8] <= 0.5000\nmse = 204764.516129\nsamples = 62", shape="box"] ;
0 -> 60 ;
61 [label="X[7] <= 0.5000\nmse = 56978.0612245\nsamples = 42", shape="box"] ;
60 -> 61 ;
62 [label="X[5] <= 0.5000\nmse = 34843.100189\nsamples = 23", shape="box"] ;
61 -> 62 ;
63 [label="X[3] <= 0.5000\nmse = 23762.1301775\nsamples = 13", shape="box"] ;
62 -> 63 ;
64 [label="X[6] <= 0.5000\nmse = 1925.0\nsamples = 6", shape="box"] ;
63 -> 64 ;
65 [label="mse = 0.0000\nsamples = 2\nvalue = [ 1950.]", shape="box"] ;
64 -> 65 ;
66 [label="X[1] <= 0.5000\nmse = 1968.75\nsamples = 4", shape="box"] ;
64 -> 66 ;
67 [label="X[4] <= 0.5000\nmse = 225.0\nsamples = 2", shape="box"] ;
66 -> 67 ;
68 [label="mse = 0.0000\nsamples = 1\nvalue = [ 1920.]", shape="box"] ;
67 -> 68 ;
69 [label="mse = 0.0000\nsamples = 1\nvalue = [ 1950.]", shape="box"] ;
67 -> 69 ;
70 [label="X[4] <= 0.5000\nmse = 900.0\nsamples = 2", shape="box"] ;
66 -> 70 ;
71 [label="mse = 0.0000\nsamples = 1\nvalue = [ 1830.]", shape="box"] ;
70 -> 71 ;
72 [label="mse = 0.0000\nsamples = 1\nvalue = [ 1890.]", shape="box"] ;
70 -> 72 ;
73 [label="X[1] <= 0.5000\nmse = 11791.8367347\nsamples = 7", shape="box"] ;
63 -> 73 ;
74 [label="X[6] <= 0.5000\nmse = 6200.0\nsamples = 3", shape="box"] ;
73 -> 74 ;
75 [label="X[4] <= 0.5000\nmse = 5625.0\nsamples = 2", shape="box"] ;
74 -> 75 ;
76 [label="mse = 0.0000\nsamples = 1\nvalue = [ 2220.]", shape="box"] ;
75 -> 76 ;
77 [label="mse = 0.0000\nsamples = 1\nvalue = [ 2370.]", shape="box"] ;
75 -> 77 ;
78 [label="mse = 0.0000\nsamples = 1\nvalue = [ 2190.]", shape="box"] ;
74 -> 78 ;
79 [label="X[6] <= 0.5000\nmse = 6018.75\nsamples = 4", shape="box"] ;
73 -> 79 ;
80 [label="X[4] <= 0.5000\nmse = 2025.0\nsamples = 2", shape="box"] ;
79 -> 80 ;
81 [label="mse = 0.0000\nsamples = 1\nvalue = [ 2130.]", shape="box"] ;
80 -> 81 ;
82 [label="mse = 0.0000\nsamples = 1\nvalue = [ 2220.]", shape="box"] ;
80 -> 82 ;
83 [label="X[4] <= 0.5000\nmse = 900.0\nsamples = 2", shape="box"] ;
79 -> 83 ;
84 [label="mse = 0.0000\nsamples = 1\nvalue = [ 2010.]", shape="box"] ;
83 -> 84 ;
85 [label="mse = 0.0000\nsamples = 1\nvalue = [ 2070.]", shape="box"] ;
83 -> 85 ;
86 [label="X[3] <= 0.5000\nmse = 11961.0\nsamples = 10", shape="box"] ;
62 -> 86 ;
87 [label="X[1] <= 0.5000\nmse = 5256.0\nsamples = 5", shape="box"] ;
86 -> 87 ;
88 [label="X[6] <= 0.5000\nmse = 1400.0\nsamples = 3", shape="box"] ;
87 -> 88 ;
89 [label="X[4] <= 0.5000\nmse = 900.0\nsamples = 2", shape="box"] ;
88 -> 89 ;
90 [label="mse = 0.0000\nsamples = 1\nvalue = [ 1770.]", shape="box"] ;
89 -> 90 ;
91 [label="mse = 0.0000\nsamples = 1\nvalue = [ 1830.]", shape="box"] ;
89 -> 91 ;
92 [label="mse = 0.0000\nsamples = 1\nvalue = [ 1740.]", shape="box"] ;
88 -> 92 ;
93 [label="X[4] <= 0.5000\nmse = 900.0\nsamples = 2", shape="box"] ;
87 -> 93 ;
94 [label="mse = 0.0000\nsamples = 1\nvalue = [ 1620.]", shape="box"] ;
93 -> 94 ;
95 [label="mse = 0.0000\nsamples = 1\nvalue = [ 1680.]", shape="box"] ;
93 -> 95 ;
96 [label="X[6] <= 0.5000\nmse = 9144.0\nsamples = 5", shape="box"] ;
86 -> 96 ;
97 [label="mse = 0.0000\nsamples = 1\nvalue = [ 2040.]", shape="box"] ;
96 -> 97 ;
98 [label="X[1] <= 0.5000\nmse = 1968.75\nsamples = 4", shape="box"] ;
96 -> 98 ;
99 [label="X[4] <= 0.5000\nmse = 900.0\nsamples = 2", shape="box"] ;
98 -> 99 ;
100 [label="mse = 0.0000\nsamples = 1\nvalue = [ 1830.]", shape="box"] ;
99 -> 100 ;
101 [label="mse = 0.0000\nsamples = 1\nvalue = [ 1890.]", shape="box"] ;
99 -> 101 ;
102 [label="X[4] <= 0.5000\nmse = 225.0\nsamples = 2", shape="box"] ;
98 -> 102 ;
103 [label="mse = 0.0000\nsamples = 1\nvalue = [ 1770.]", shape="box"] ;
102 -> 103 ;
104 [label="mse = 0.0000\nsamples = 1\nvalue = [ 1800.]", shape="box"] ;
102 -> 104 ;
105 [label="X[5] <= 0.5000\nmse = 33467.0360111\nsamples = 19", shape="box"] ;
61 -> 105 ;
106 [label="X[1] <= 0.5000\nmse = 20752.0661157\nsamples = 11", shape="box"] ;
105 -> 106 ;
107 [label="X[6] <= 0.5000\nmse = 8669.3877551\nsamples = 7", shape="box"] ;
106 -> 107 ;
108 [label="X[3] <= 0.5000\nmse = 7818.75\nsamples = 4", shape="box"] ;
107 -> 108 ;
109 [label="X[4] <= 0.5000\nmse = 2025.0\nsamples = 2", shape="box"] ;
108 -> 109 ;
110 [label="mse = 0.0000\nsamples = 1\nvalue = [ 2490.]", shape="box"] ;
109 -> 110 ;
111 [label="mse = 0.0000\nsamples = 1\nvalue = [ 2400.]", shape="box"] ;
109 -> 111 ;
112 [label="X[4] <= 0.5000\nmse = 8100.0\nsamples = 2", shape="box"] ;
108 -> 112 ;
113 [label="mse = 0.0000\nsamples = 1\nvalue = [ 2460.]", shape="box"] ;
112 -> 113 ;
114 [label="mse = 0.0000\nsamples = 1\nvalue = [ 2640.]", shape="box"] ;
112 -> 114 ;
115 [label="X[4] <= 0.5000\nmse = 3200.0\nsamples = 3", shape="box"] ;
107 -> 115 ;
116 [label="mse = 0.0000\nsamples = 1\nvalue = [ 2310.]", shape="box"] ;
115 -> 116 ;
117 [label="mse = 0.0000\nsamples = 2\nvalue = [ 2430.]", shape="box"] ;
115 -> 117 ;
118 [label="X[4] <= 0.5000\nmse = 5568.75\nsamples = 4", shape="box"] ;
106 -> 118 ;
119 [label="mse = 0.0000\nsamples = 2\nvalue = [ 2160.]", shape="box"] ;
118 -> 119 ;
120 [label="X[3] <= 0.5000\nmse = 5625.0\nsamples = 2", shape="box"] ;
118 -> 120 ;
121 [label="mse = 0.0000\nsamples = 1\nvalue = [ 2190.]", shape="box"] ;
120 -> 121 ;
122 [label="mse = 0.0000\nsamples = 1\nvalue = [ 2340.]", shape="box"] ;
120 -> 122 ;
123 [label="X[6] <= 0.5000\nmse = 4485.9375\nsamples = 8", shape="box"] ;
105 -> 123 ;
124 [label="X[1] <= 0.5000\nmse = 1350.0\nsamples = 4", shape="box"] ;
123 -> 124 ;
125 [label="X[4] <= 0.5000\nmse = 1400.0\nsamples = 3", shape="box"] ;
124 -> 125 ;
126 [label="X[3] <= 0.5000\nmse = 225.0\nsamples = 2", shape="box"] ;
125 -> 126 ;
127 [label="mse = 0.0000\nsamples = 1\nvalue = [ 2130.]", shape="box"] ;
126 -> 127 ;
128 [label="mse = 0.0000\nsamples = 1\nvalue = [ 2100.]", shape="box"] ;
126 -> 128 ;
129 [label="mse = 0.0000\nsamples = 1\nvalue = [ 2190.]", shape="box"] ;
125 -> 129 ;
130 [label="mse = 0.0000\nsamples = 1\nvalue = [ 2100.]", shape="box"] ;
124 -> 130 ;
131 [label="X[4] <= 0.5000\nmse = 2868.75\nsamples = 4", shape="box"] ;
123 -> 131 ;
132 [label="mse = 0.0000\nsamples = 2\nvalue = [ 1980.]", shape="box"] ;
131 -> 132 ;
133 [label="X[3] <= 0.5000\nmse = 225.0\nsamples = 2", shape="box"] ;
131 -> 133 ;
134 [label="mse = 0.0000\nsamples = 1\nvalue = [ 2100.]", shape="box"] ;
133 -> 134 ;
135 [label="mse = 0.0000\nsamples = 1\nvalue = [ 2070.]", shape="box"] ;
133 -> 135 ;
136 [label="X[1] <= 0.5000\nmse = 7332.75\nsamples = 20", shape="box"] ;
60 -> 136 ;
137 [label="X[6] <= 0.5000\nmse = 6456.19834711\nsamples = 11", shape="box"] ;
136 -> 137 ;
138 [label="X[3] <= 0.5000\nmse = 4725.0\nsamples = 4", shape="box"] ;
137 -> 138 ;
139 [label="X[5] <= 0.5000\nmse = 225.0\nsamples = 2", shape="box"] ;
138 -> 139 ;
140 [label="mse = 0.0000\nsamples = 1\nvalue = [ 1380.]", shape="box"] ;
139 -> 140 ;
141 [label="mse = 0.0000\nsamples = 1\nvalue = [ 1350.]", shape="box"] ;
139 -> 141 ;
142 [label="X[4] <= 0.5000\nmse = 2025.0\nsamples = 2", shape="box"] ;
138 -> 142 ;
143 [label="mse = 0.0000\nsamples = 1\nvalue = [ 1290.]", shape="box"] ;
142 -> 143 ;
144 [label="mse = 0.0000\nsamples = 1\nvalue = [ 1200.]", shape="box"] ;
142 -> 144 ;
145 [label="X[4] <= 0.5000\nmse = 5840.81632653\nsamples = 7", shape="box"] ;
137 -> 145 ;
146 [label="X[5] <= 0.5000\nmse = 2250.0\nsamples = 4", shape="box"] ;
145 -> 146 ;
147 [label="X[3] <= 0.5000\nmse = 225.0\nsamples = 2", shape="box"] ;
146 -> 147 ;
148 [label="mse = 0.0000\nsamples = 1\nvalue = [ 1350.]", shape="box"] ;
147 -> 148 ;
149 [label="mse = 0.0000\nsamples = 1\nvalue = [ 1320.]", shape="box"] ;
147 -> 149 ;
150 [label="X[3] <= 0.5000\nmse = 225.0\nsamples = 2", shape="box"] ;
146 -> 150 ;
151 [label="mse = 0.0000\nsamples = 1\nvalue = [ 1260.]", shape="box"] ;
150 -> 151 ;
152 [label="mse = 0.0000\nsamples = 1\nvalue = [ 1230.]", shape="box"] ;
150 -> 152 ;
153 [label="X[5] <= 0.5000\nmse = 2400.0\nsamples = 3", shape="box"] ;
145 -> 153 ;
154 [label="mse = 0.0000\nsamples = 1\nvalue = [ 1110.]", shape="box"] ;
153 -> 154 ;
155 [label="X[3] <= 0.5000\nmse = 900.0\nsamples = 2", shape="box"] ;
153 -> 155 ;
156 [label="mse = 0.0000\nsamples = 1\nvalue = [ 1230.]", shape="box"] ;
155 -> 156 ;
157 [label="mse = 0.0000\nsamples = 1\nvalue = [ 1170.]", shape="box"] ;
155 -> 157 ;
158 [label="X[5] <= 0.5000\nmse = 1822.22222222\nsamples = 9", shape="box"] ;
136 -> 158 ;
159 [label="X[4] <= 0.5000\nmse = 168.75\nsamples = 4", shape="box"] ;
158 -> 159 ;
160 [label="mse = 0.0000\nsamples = 2\nvalue = [ 1170.]", shape="box"] ;
159 -> 160 ;
161 [label="X[3] <= 0.5000\nmse = 225.0\nsamples = 2", shape="box"] ;
159 -> 161 ;
162 [label="mse = 0.0000\nsamples = 1\nvalue = [ 1170.]", shape="box"] ;
161 -> 162 ;
163 [label="mse = 0.0000\nsamples = 1\nvalue = [ 1200.]", shape="box"] ;
161 -> 163 ;
164 [label="X[3] <= 0.5000\nmse = 2304.0\nsamples = 5", shape="box"] ;
158 -> 164 ;
165 [label="X[4] <= 0.5000\nmse = 2400.0\nsamples = 3", shape="box"] ;
164 -> 165 ;
166 [label="X[6] <= 0.5000\nmse = 900.0\nsamples = 2", shape="box"] ;
165 -> 166 ;
167 [label="mse = 0.0000\nsamples = 1\nvalue = [ 1200.]", shape="box"] ;
166 -> 167 ;
168 [label="mse = 0.0000\nsamples = 1\nvalue = [ 1140.]", shape="box"] ;
166 -> 168 ;
169 [label="mse = 0.0000\nsamples = 1\nvalue = [ 1080.]", shape="box"] ;
165 -> 169 ;
170 [label="X[4] <= 0.5000\nmse = 2025.0\nsamples = 2", shape="box"] ;
164 -> 170 ;
171 [label="mse = 0.0000\nsamples = 1\nvalue = [ 1080.]", shape="box"] ;
170 -> 171 ;
172 [label="mse = 0.0000\nsamples = 1\nvalue = [ 1170.]", shape="box"] ;
170 -> 172 ;
}